tree
version=v4
num_class=1
num_tree_per_iteration=1
label_index=0
max_feature_idx=21
objective=lambdarank
feature_names=post_emotion_score like_count_log comment_count_log view_count_log recency_hours controversy_score cf_base_score position_original emotion_match state_happy state_calm state_low state_anxious tag_positive_energy tag_healing tag_neutral_calm tag_controversial user_avg_score user_volatility trend_rising trend_falling author_influence
feature_infos=[-0.70999999999999996:0.93999999999999995] [2.7725887222397811:3.8712010109078911] [1.791759469228055:2.9957322735539909] [4.499809670330265:5.4026773818722793] [11.045848485:56.045848485] none none [1:15] [0.060000000000000053:0.96999999999999997] [0:1] [0:1] [0:1] [0:1] none none none none none none none none none
tree_sizes=3370 3339 3336 3254

Tree=0
num_leaves=31
num_cat=0
split_feature=7 8 1 8 2 12 1 8 1 1 1 7 1 1 7 7 4 7 1 7 4 8 12 4 8 1 1 4 7 1
split_gain=1.67364 1.21538 1.01613 1.1105 0.81909 0.896982 0.780451 0.87039 0.968542 1.1177 0.732104 0.622538 0.692448 0.613075 0.487495 0.378569 1.18658 0.609432 1.08114 0.41088 1.36909 0.472573 0.348218 0.252519 0.208837 0.191659 0.167671 0.1547 0.135651 0.150372
threshold=4.5000000000000009 0.68000000000000005 3.7132745361986528 0.8500000000000002 2.249904835165133 1.0000000180025095e-35 3.4960482137079443 0.32500000000000012 3.0868930519509687 3.2755401675217026 3.6235402922928786 7.5000000000000009 3.0868930519509687 3.1984648276080736 1.5000000000000002 8.5000000000000018 23.045848485000004 9.5000000000000018 3.7494348669884658 11.500000000000002 25.045848485000004 0.28500000000000009 1.0000000180025095e-35 27.045848485000004 0.14750000000000005 3.3842466058243152 3.7132745361986528 25.045848485000004 5.5000000000000009 3.1984648276080736
decision_type=2 2 2 2 2 2 2 2 2 2 2 2 2 2 2 2 2 2 2 2 2 2 2 2 2 2 2 2 2 2
left_child=2 11 3 6 -3 -6 7 13 -9 -10 22 24 -13 -1 -4 16 -14 26 19 20 -19 -21 -8 -23 -2 -22 -17 -11 29 -26
right_child=1 4 14 -5 5 -7 10 8 9 27 -12 12 15 -15 -16 17 -18 18 -20 21 25 23 -24 -25 28 -27 -28 -29 -30 -31
leaf_value=0.022211283573411809 -0.011209043493517484 -0.050722607569468649 -0.040852471582613598 -0.033226446232503669 0.091532320544326043 -0.022742282809194117 0.099999999999999839 -0.050135411524718565 0.06580144598620731 0.0072046114560324302 0.02324569429430513 0.038473520917699011 0.099999999999999672 0.09999999999999977 0.0072611202095805563 -0.044840420663571079 -0.02544559769914256 -0.040572657953443191 0.073636401670746587 -0.076804007893122445 0.099999999999999548 0.011927411946398091 0.047759541815611484 -0.044564335692246243 -0.046180746368756999 0.034349309448345258 -0.090577613824282255 -0.025441361534048957 -0.052344355389701037 -0.0069263756765744651
leaf_weight=0.60961579717695913 0.5722254832508028 0.22022469458170124 1.0682406872510912 0.8020384064875542 0.58188078424427658 0.24361586943268776 0.72748624067753576 0.69647645950317416 0.77736562211066518 0.75571564491838195 1.2309431675821541 0.61431223753606889 0.26585416984744359 0.43334232177585363 1.0380744738504288 0.53395569138228927 0.64791484386660159 0.87888817745260961 0.31402748293476168 0.59963641129434087 0.22177221113815904 0.3734194015560206 0.56808661296963692 0.42066088377032429 0.57280008681118499 0.22291305148974061 0.32075465586967766 0.69811031594872475 1.8457296604756266 0.42496920423582196
leaf_count=13 16 11 6 13 38 6 17 8 13 11 17 22 15 15 23 18 18 28 13 13 11 13 7 9 11 12 8 9 54 15
internal_value=0 -0.0160177 0.0134533 0.0222816 0.0349521 0.0578083 0.0291338 0.0153104 0.00133806 0.0174057 0.0508583 -0.0220541 -0.0115089 0.054532 -0.0171402 -0.017906 0.0110518 -0.0247152 -0.014201 -0.0243521 -0.00440074 -0.0432993 0.0770934 -0.0179989 -0.0387688 0.0670904 -0.0620046 -0.00847161 -0.0443149 -0.0294616
internal_weight=0 9.87556 9.4055 7.29918 1.04572 0.825497 6.49714 3.97063 2.92767 2.23119 2.52652 8.82983 5.41411 1.04296 2.10632 4.7998 0.913769 3.88603 3.03132 2.71729 1.32357 1.39372 1.29557 0.79408 3.41572 0.444685 0.85471 1.45383 2.8435 0.997769
internal_count=483 331 152 123 55 44 110 69 41 33 41 276 180 28 29 158 33 125 99 86 51 35 24 22 96 23 26 20 80 26
is_linear=0
shrinkage=0.05


Tree=1
num_leaves=31
num_cat=0
split_feature=0 4 7 7 7 0 0 4 7 0 7 1 7 0 7 7 1 9 7 4 7 0 7 0 0 7 4 10 0 7
split_gain=5.57993 5.1478 5.95241 2.7571 4.9985 2.27335 1.94387 1.70522 1.6645 6.27052 5.86861 2.86777 1.57686 2.65957 1.23742 1.2073 1.1221 4.51803 5.21484 1.08226 1.03679 0.899842 0.701526 4.73467 0.993316 0.643383 0.589459 0.587497 0.618288 0.482714
threshold=0.70000000000000007 19.045848485000004 3.5000000000000004 7.5000000000000009 8.5000000000000018 0.75000000000000011 -1.0000000180025095e-35 17.045848485000004 9.5000000000000018 0.92500000000000016 11.500000000000002 3.6235402922928786 3.5000000000000004 0.83500000000000008 5.5000000000000009 4.5000000000000009 3.5549397315361362 1.0000000180025095e-35 11.500000000000002 23.045848485000004 9.5000000000000018 0.89000000000000012 6.5000000000000009 0.8600000000000001 0.8600000000000001 8.5000000000000018 29.045848485000004 1.0000000180025095e-35 -0.5149999999999999 7.5000000000000009
decision_type=2 2 2 2 2 2 2 2 2 2 2 2 2 2 2 2 2 2 2 2 2 2 2 2 2 2 2 2 2 2
left_child=1 3 6 7 -5 -2 -3 14 12 10 11 -10 13 -7 -1 -9 17 18 25 29 -6 -15 23 -21 -24 -4 -12 28 -18 -14
right_child=5 2 16 4 20 8 -8 15 9 -11 26 -13 19 21 -16 -17 27 -19 -20 22 -22 -23 24 -25 -26 -27 -28 -29 -30 -31
leaf_value=-0.016968840540111645 -0.048173847215914611 0.084343884337167718 0.076757028216058523 0.095066986741708603 -0.047742709402625809 -0.038002992551700747 0.03637768281404824 -0.035589129390900982 0.096922529373495506 0.096483598806247767 -0.035830512373876189 -0.0016329809841454644 -0.021886140751262852 0.063062549792165315 -0.067923688555988182 0.034498757905826419 -0.015603390561823947 -0.036425556439908732 -0.045893648982457187 -0.066542539362810113 0.010541433277312093 0.011558415009841033 -0.022143995700524527 0.058788736552136768 -0.071846611869779434 0.041829728838562591 -0.077498609967311935 -0.03725885646678001 0.020242223994331635 0.01851178314979374
leaf_weight=1.9997910289093832 4.2161220535635975 4.5684423018246889 3.4091729866340739 1.4659304916858671 1.4572811555117371 2.5244732704013648 3.9285741504281777 1.1042692102491858 1.2321129115298373 1.6696048043668268 1.6353414282202723 1.840972188860178 1.6593200620263799 1.2370115593075754 2.9477368984371424 1.385113578289747 2.5595153048634525 2.5203815028071404 1.3627216219902036 2.1242680358700459 1.6015596585348246 2.697062099352479 1.6285698339343069 1.1678061075508592 2.6263690581545234 2.1500204727053642 1.764623826369643 1.2464366387575863 2.2697898540645833 1.3338838890194891
leaf_count=19 32 23 26 10 11 17 20 10 15 9 11 16 17 14 13 13 21 13 10 15 19 17 12 15 19 19 10 8 18 11
internal_value=0 0.0151783 0.0285265 -0.0116205 0.0191545 -0.0141971 0.0621668 -0.0303447 -0.00849935 0.0100891 -0.0121948 0.0378816 -0.0174035 0.00205082 -0.0473277 0.00340836 0.0101066 0.0208918 0.0417619 -0.0293241 -0.0172261 0.0277531 -0.0394142 -0.0220834 -0.052823 0.0632489 -0.0574568 -0.00665471 0.00124417 -0.00388331
internal_weight=0 35.9767 24.0151 11.9617 4.52477 29.3575 8.49702 7.43691 25.1414 8.14266 6.47305 3.07309 16.9988 6.45855 4.94753 2.48938 15.518 9.4423 6.92192 10.5402 3.05884 3.93407 7.54701 3.29207 4.25494 5.55919 3.39997 6.07574 4.82931 2.9932
internal_count=483 253 158 95 40 230 43 55 198 61 52 31 137 48 32 23 115 68 55 89 30 31 61 30 31 45 21 47 39 28
is_linear=0
shrinkage=0.05


Tree=2
num_leaves=31
num_cat=0
split_feature=0 0 8 7 0 7 1 7 0 8 12 1 7 7 8 0 0 7 7 7 7 8 7 7 7 8 7 10 0 0
split_gain=3.02866 2.57666 2.35947 2.1878 2.80635 4.58436 2.4831 2.17221 2.3654 1.73411 4.27247 2.06899 2.59851 1.71731 1.63186 1.78358 2.51689 1.59831 3.72023 1.55192 1.46659 1.38284 1.14258 1.18072 1.10771 0.814191 2.42334 0.786458 0.765396 0.255774
threshold=0.70000000000000007 -0.58999999999999997 0.49000000000000005 8.5000000000000018 0.92500000000000016 11.500000000000002 3.6235402922928786 6.5000000000000009 0.8600000000000001 0.68000000000000005 1.0000000180025095e-35 3.4334666422309414 3.5000000000000004 2.5000000000000004 0.20250000000000001 0.75000000000000011 0.80000000000000016 6.5000000000000009 8.5000000000000018 3.5000000000000004 4.5000000000000009 0.28500000000000009 5.5000000000000009 7.5000000000000009 9.5000000000000018 0.30500000000000005 7.5000000000000009 1.0000000180025095e-35 0.56500000000000017 0.83500000000000008
decision_type=2 2 2 2 2 2 2 2 2 2 2 2 2 2 2 2 2 2 2 2 2 2 2 2 2 2 2 2 2 2
left_child=1 21 19 7 5 6 24 8 14 11 27 28 -13 -10 -2 -16 -17 -14 -19 -3 -15 -1 -23 -24 -5 -21 -27 -11 -4 -9
right_child=3 2 9 4 -6 -7 -8 29 13 10 -12 12 17 20 15 16 -18 18 -20 25 -22 22 23 -25 -26 26 -28 -29 -30 -31
leaf_value=0.021763318308221681 -0.068124615685652298 0.09240912988972079 -0.050357262178401932 0.014569502958603379 0.06082676151537153 -0.055196087424113686 -0.021017273035515208 -0.071660642322384324 -0.014776567389321135 0.09474313564225767 -0.022883335586798711 0.068381643622460825 -0.041952410897900257 0.096247449371284072 -0.04701138971686452 -0.019187630126735411 0.09707335179100543 0.091747084570168655 -0.016816713194664743 0.058286102046615156 0.015849140952719026 0.012145459749463414 -0.065484199100008744 -0.0094985456816327161 0.075044975201340847 -0.041904031030371922 0.056882048517513432 0.045778110936924139 -0.0023145982674985643 -0.044353720087608406
leaf_weight=2.202458735555413 2.0881336145102996 1.538375455886128 2.0653090048581344 1.2612131834030134 2.0253434209153056 2.9041578029282391 1.9388022460043428 1.5589913744479411 2.6077337209135294 1.6704577794298521 1.9407294467091558 1.7820986323058603 1.6668451558798549 0.85665942542254958 2.0851203612983227 1.4570181854069235 0.68408400192856778 1.147311929613352 2.5275456793606281 1.9888709839433429 1.6788556794635949 1.4606465846300123 2.0604732036590581 1.734505391679704 1.8947603069245815 1.0662457384169104 1.486080791801214 1.6108513884246349 1.3849749173969033 1.9058734420686958
leaf_count=19 13 14 15 14 14 23 19 10 18 26 12 14 12 13 19 19 15 8 24 12 15 12 13 17 20 10 15 18 12 18
internal_value=0 0.0138844 0.0225371 -0.00981437 0.00825158 -0.00506055 0.023518 -0.0219503 -0.0114598 0.0123498 0.0359239 0.000707693 0.0160999 0.0137124 -0.0319634 -0.0140965 0.0179579 -0.00134239 0.0170775 0.0490059 0.0430128 -0.011495 -0.0254325 -0.0398958 0.0508773 0.0343026 0.0156137 0.0707054 -0.0310725 -0.0566403
internal_weight=0 29.3338 21.8757 24.9467 10.0243 7.99893 5.09478 14.9225 11.4576 15.7961 5.22204 10.5741 7.1238 5.14325 6.31436 4.22622 2.1411 5.3417 3.67486 6.07957 2.53552 7.45808 5.25563 3.79498 3.15597 4.5412 2.55233 3.28131 3.45028 3.46486
internal_count=483 253 192 230 90 76 53 140 112 141 56 85 58 46 66 53 34 44 32 51 28 61 42 30 34 37 25 44 27 28
is_linear=0
shrinkage=0.05


Tree=3
num_leaves=30
num_cat=0
split_feature=1 1 8 8 1 4 8 8 12 8 1 4 12 8 8 12 1 12 8 10 1 2 8 8 2 8 12 0 4
split_gain=2.31763 3.24429 2.621 1.90823 0.957073 0.924267 0.921311 1.16938 2.49654 1.47621 1.33562 1.08933 1.02398 1.23966 0.447971 1.58462 0.426312 0.365828 0.36342 0.313109 1.59557 0.433881 1.41606 0.275616 0.24813 0.202396 0.162279 0.100592 0.0157769
threshold=2.8841604978968864 3.6235402922928786 0.37500000000000011 0.16 3.6762205501217919 31.045848485000004 0.40000000000000008 0.68000000000000005 1.0000000180025095e-35 0.88500000000000012 3.5549397315361362 44.045848485000008 1.0000000180025095e-35 0.30500000000000005 0.28500000000000009 1.0000000180025095e-35 3.3842466058243152 1.0000000180025095e-35 0.17500000000000002 1.0000000180025095e-35 3.1984648276080736 2.3502401828962087 0.49000000000000005 0.53500000000000014 2.524928003624769 0.49000000000000005 1.0000000180025095e-35 -0.66999999999999982 23.045848485000004
decision_type=2 2 2 2 2 2 2 2 2 2 2 2 2 2 2 2 2 2 2 2 2 2 2 2 2 2 2 2 2
left_child=25 6 3 4 -3 28 11 10 9 24 19 12 13 16 15 18 -2 27 -5 20 -8 -22 -23 -24 -9 -1 -6 -16 -4
right_child=1 2 5 14 26 -7 7 8 -10 -11 -12 -13 -14 -15 17 -17 -18 -19 -20 -21 21 22 23 -25 -26 -27 -28 -29 -30
leaf_value=-0.03109769692772504 0.037268786526450361 -0.028459060706610376 0.010338824501175894 -0.029225767052747837 0.011389233648143773 0.057216191333581606 0.05433588148542922 0.090908043423432672 -0.019926649752250645 0.012704763458428525 0.03585524289197195 1.1591911447412144e-05 0.072442494344028704 0.0027790699742485407 -0.04998603580838247 -0.07503726467997246 0.075822525230978099 -0.025676740941156209 0.0078721274012976319 -0.030804075013417954 -0.026895734787647466 0.05049340888440066 -0.027671781149982179 -0.0030082819983958207 0.05788485948052511 -0.060651209400553165 0.035681680867253325 -0.069752119956480618 0.0026549357254396972
leaf_weight=1.825289994478225 2.4717639125883601 1.4774491079151646 1.5893919896334401 1.0383912948891521 1.7236321326345205 1.3853342365473507 1.0975758694112308 1.3798715919256208 1.7075332254171369 1.4195083901286123 2.4449928961694232 2.3779919259250164 1.7428540755063293 2.5913105588406324 1.2534366743639114 1.1562319733202455 1.0100173642858861 1.098568616434932 1.8124093078076839 1.0728566702455289 2.5667575625702721 1.0429958719760177 2.0524119678884745 2.527974131051451 0.9677766803652047 0.8486951459199189 1.1436116248369217 1.3231281489133833 1.1523965885862708
leaf_count=22 24 12 18 8 19 18 12 21 12 21 23 22 16 23 10 8 16 10 21 13 25 12 19 21 12 10 8 12 15
internal_value=0 0.00744587 -0.0104524 -0.0222505 0.00423275 0.0239284 0.0175999 0.0108837 0.0302246 0.0529565 0.00261496 0.0296438 0.0386594 0.0289643 -0.0372283 -0.0256651 0.0484527 -0.0498357 -0.00564061 -0.00522942 -0.0022752 -0.00986176 -0.0020867 -0.0140597 0.0772948 -0.0404777 0.0210784 -0.0601364 0.00710922
internal_weight=0 44.6282 16.154 12.0269 4.34469 4.12712 28.4742 18.2803 5.47469 3.76716 12.8056 10.1939 7.81595 6.07309 7.68217 4.00703 3.48178 3.67513 2.8508 10.3606 9.28772 8.19014 5.62338 4.58039 2.34765 2.67399 2.86724 2.57656 2.74179
internal_count=483 451 159 108 39 51 292 191 66 54 125 101 79 63 69 37 40 32 29 102 89 77 52 40 33 32 27 22 33
is_linear=0
shrinkage=0.05


end of trees

feature_importances:
position_original=33
like_count_log=21
emotion_match=21
post_emotion_score=18
recency_hours=11
state_anxious=8
comment_count_log=3
state_calm=3
state_happy=1

parameters:
[boosting: gbdt]
[objective: lambdarank]
[metric: ndcg]
[tree_learner: serial]
[device_type: cpu]
[data_sample_strategy: bagging]
[data: ]
[valid: ]
[num_iterations: 300]
[learning_rate: 0.05]
[num_leaves: 31]
[num_threads: -1]
[seed: 0]
[deterministic: 0]
[force_col_wise: 0]
[force_row_wise: 0]
[histogram_pool_size: -1]
[max_depth: -1]
[min_data_in_leaf: 10]
[min_sum_hessian_in_leaf: 0.001]
[bagging_fraction: 0.8]
[pos_bagging_fraction: 1]
[neg_bagging_fraction: 1]
[bagging_freq: 5]
[bagging_seed: 3]
[feature_fraction: 0.8]
[feature_fraction_bynode: 1]
[feature_fraction_seed: 2]
[extra_trees: 0]
[extra_seed: 6]
[early_stopping_round: 0]
[first_metric_only: 0]
[max_delta_step: 0]
[lambda_l1: 0]
[lambda_l2: 0]
[linear_lambda: 0]
[min_gain_to_split: 0]
[drop_rate: 0.1]
[max_drop: 50]
[skip_drop: 0.5]
[xgboost_dart_mode: 0]
[uniform_drop: 0]
[drop_seed: 4]
[top_rate: 0.2]
[other_rate: 0.1]
[min_data_per_group: 100]
[max_cat_threshold: 32]
[cat_l2: 10]
[cat_smooth: 10]
[max_cat_to_onehot: 4]
[top_k: 20]
[monotone_constraints: ]
[monotone_constraints_method: basic]
[monotone_penalty: 0]
[feature_contri: ]
[forcedsplits_filename: ]
[refit_decay_rate: 0.9]
[cegb_tradeoff: 1]
[cegb_penalty_split: 0]
[cegb_penalty_feature_lazy: ]
[cegb_penalty_feature_coupled: ]
[path_smooth: 0]
[interaction_constraints: ]
[verbosity: -1]
[saved_feature_importance_type: 0]
[use_quantized_grad: 0]
[num_grad_quant_bins: 4]
[quant_train_renew_leaf: 0]
[stochastic_rounding: 1]
[linear_tree: 0]
[max_bin: 255]
[max_bin_by_feature: ]
[min_data_in_bin: 3]
[bin_construct_sample_cnt: 200000]
[data_random_seed: 1]
[is_enable_sparse: 1]
[enable_bundle: 1]
[use_missing: 1]
[zero_as_missing: 0]
[feature_pre_filter: 1]
[pre_partition: 0]
[two_round: 0]
[header: 0]
[label_column: ]
[weight_column: ]
[group_column: ]
[ignore_column: ]
[categorical_feature: ]
[forcedbins_filename: ]
[precise_float_parser: 0]
[parser_config_file: ]
[objective_seed: 5]
[num_class: 1]
[is_unbalance: 0]
[scale_pos_weight: 1]
[sigmoid: 1]
[boost_from_average: 1]
[reg_sqrt: 0]
[alpha: 0.9]
[fair_c: 1]
[poisson_max_delta_step: 0.7]
[tweedie_variance_power: 1.5]
[lambdarank_truncation_level: 30]
[lambdarank_norm: 1]
[label_gain: ]
[lambdarank_position_bias_regularization: 0]
[eval_at: 5,10]
[multi_error_top_k: 1]
[auc_mu_weights: ]
[num_machines: 1]
[local_listen_port: 12400]
[time_out: 120]
[machine_list_filename: ]
[machines: ]
[gpu_platform_id: -1]
[gpu_device_id: -1]
[gpu_use_dp: 0]
[num_gpu: 1]

end of parameters

pandas_categorical:[]
